-0.183797 -0.085024 -0.224016 -0.131633 -0.228036 -0.061150 -0.270043 -0.170136 -0.012477 0.224624 0.115753 -0.013479 -0.092730 0.004334 -0.022554 0.139420
-0.057628 -0.187793 -0.221950 0.301560 0.106720 -0.237060 -0.227514 -0.131777 0.103155 -0.092975 -0.307507 -0.024187 0.140507 0.160560 -0.064669 0.077191
-0.008997 -0.136161 0.001230 0.102787 0.056699 0.037195 -0.028673 -0.230766 -0.032825 0.144049 -0.135732 -0.023849 -0.107437 0.100436 -0.131506 -0.203168
0.149450 -0.050956 0.022990 -0.142440 -0.209108 0.167656 -0.110539 -0.105362 -0.040933 -0.174852 0.059683 0.207038 0.184303 -0.045621 -0.140853 -0.073913
0.208666 0.223343 -0.024383 -0.197105 -0.279364 -0.002676 0.176351 0.006535 0.114032 -0.089895 -0.229250 -0.318817 -0.159945 0.002600 0.171917 -0.102394
0.024993 -0.257931 0.101325 -0.107358 0.119053 0.210238 0.105951 -0.264542 0.115188 -0.057643 -0.009187 -0.106608 -0.064941 0.136492 -0.101414 0.314569
-0.091432 -0.033904 0.232089 0.167129 -0.308318 -0.118583 -0.129702 0.125605 -0.278905 -0.197457 -0.185851 0.087167 -0.120435 0.001699 0.008517 0.143953
-0.108411 -0.257061 0.260847 -0.023036 -0.076595 0.160497 0.006652 -0.261140 -0.035285 0.036171 0.060752 0.229507 0.105399 -0.243425 0.212021 -0.042419
-0.168541 0.133685 -0.081507 0.140170 -0.186611 -0.063117 0.085466 0.186889 -0.213616 -0.103988 -0.021569 0.039400 0.018146 -0.081974 0.084648 0.216443
-0.162657 -0.069868 -0.107864 -0.076977 -0.031035 0.100559 -0.264064 -0.005611 0.063928 0.161281 0.051932 -0.146689 0.073618 0.063203 0.221976 0.228594
-0.178814 0.174029 0.106797 -0.140788 0.075145 0.026775 0.147031 0.100114 0.030249 -0.052863 0.155663 0.116451 0.240772 -0.269385 -0.184797 -0.001189
0.142897 0.070356 -0.170692 0.222230 -0.075703 0.169763 -0.163019 -0.107176 0.135680 -0.080262 -0.007203 0.149310 -0.031362 0.155357 0.200263 0.062195
0.045171 0.044652 0.118909 -0.127286 0.003288 0.039042 0.076635 -0.213469 0.135836 0.130828 0.057894 0.250886 0.134280 0.216016 0.224794 0.044344
0.090700 -0.031232 -0.202535 0.207548 0.005405 -0.260961 0.063737 0.269768 -0.110252 0.253266 0.167306 0.120506 0.159364 -0.177087 -0.062002 -0.088247
-0.193504 -0.162996 0.013977 0.023761 -0.086647 -0.163354 0.240627 -0.116868 -0.102437 0.117167 0.202429 -0.101287 0.191740 0.009539 -0.176517 0.192149
0.110797 -0.053344 0.000862 0.101510 0.127396 0.163496 -0.004903 0.018494 -0.237791 0.153417 0.112777 0.082349 0.110433 0.145469 -0.163441 0.166863
