-0.096994 0.014706 0.206953 -0.114850 -0.271011 -0.152726 -0.130468 0.022019 0.148247 0.016798 0.080177 0.004437 0.184359 -0.048575 -0.085335 -0.286745
0.217334 -0.146619 0.095269 0.040723 0.063986 0.213881 -0.154026 -0.102788 -0.198721 -0.048579 0.117469 0.031405 0.067001 0.188056 -0.137137 -0.048524
0.006188 0.086758 0.039206 -0.016838 -0.323300 0.223086 0.048959 -0.074873 -0.032885 0.225476 -0.118765 0.180806 -0.028982 0.296722 0.236238 0.012907
0.202552 0.267898 0.115993 0.257839 0.093309 0.105898 -0.213672 -0.279799 -0.067957 0.102133 0.247219 -0.307596 -0.122822 0.004419 -0.119322 0.080189
0.005682 -0.212915 -0.189484 0.142986 0.181980 -0.204816 0.185390 0.071157 0.129074 -0.166453 -0.160452 0.035545 0.116136 -0.128444 0.015176 0.114571
-0.155892 -0.270180 0.200851 0.113999 0.258076 -0.059856 -0.058391 -0.259402 -0.000846 -0.313366 -0.123662 0.191313 -0.253681 0.299993 -0.245853 -0.230788
0.070762 0.262000 -0.197412 -0.040775 -0.249013 -0.038225 0.296017 0.275611 0.079661 0.072222 -0.018106 -0.174543 0.235525 -0.092471 -0.028982 0.126299
0.207203 -0.218709 -0.045775 0.065068 -0.010567 -0.044283 -0.159617 0.019970 0.074002 -0.072277 0.060352 -0.202636 -0.117340 0.094272 0.287635 0.190778
0.028467 0.092354 0.052460 0.023890 0.139017 -0.014643 0.117421 0.230484 0.048146 -0.036736 0.201579 0.025647 0.221519 0.060182 -0.152800 0.198362
0.093325 0.005026 0.095872 0.464912 0.153379 0.275177 -0.175825 0.076427 -0.302989 -0.353790 0.190461 -0.341185 -0.015062 0.093560 -0.130473 0.004879
0.054571 0.179970 -0.064455 -0.036483 -0.195540 -0.027384 0.243995 0.176519 0.089878 -0.043781 0.078676 0.259583 0.172363 -0.146529 0.003396 -0.199718
-0.197179 -0.126919 -0.066606 0.198590 -0.108370 0.204565 -0.126390 0.070137 0.156291 0.290441 -0.276272 -0.226379 -0.232247 0.177489 0.103959 -0.065589
0.029327 0.157618 0.148310 -0.027603 0.077034 0.033514 -0.125368 -0.217031 -0.156070 -0.187878 0.242030 -0.062458 -0.094423 -0.205160 -0.102498 -0.143041
-0.075301 0.090533 0.069720 0.332350 0.021763 -0.054816 -0.188697 -0.083088 -0.162536 0.084358 0.132183 -0.255416 -0.100174 -0.014889 -0.252481 0.028162
-0.087760 0.254380 -0.197171 0.294627 -0.044174 -0.026826 -0.194805 0.399505 -0.310005 -0.266286 -0.161711 0.229577 -0.252857 -0.126367 0.151161 0.087506
-0.008149 -0.139648 -0.039169 0.006815 -0.107832 0.147608 0.035099 -0.053143 0.088528 0.275554 -0.318420 0.197850 -0.002736 -0.167495 0.092379 -0.137205
