-0.135070 0.165192 -0.133769 -0.233758 -0.094437 -0.309246 0.163160 0.076824 0.087448 0.049898 -0.191462 -0.138423 -0.239478 0.201347 -0.016408 0.195847
-0.026843 0.043541 -0.071463 -0.035206 -0.093064 0.034469 0.180533 0.257074 -0.107920 0.143629 -0.192355 0.240742 0.070493 0.036724 0.071586 0.037632
0.208213 -0.029042 0.121086 -0.118960 -0.085066 -0.122527 0.056951 -0.103100 0.114784 0.079039 -0.030109 0.167874 0.217729 -0.047737 -0.387707 -0.127833
0.121935 0.034624 0.281498 -0.230856 0.076678 0.010189 0.148579 0.030709 0.177081 0.180839 -0.024625 0.047615 -0.324404 0.311245 -0.018875 0.138644
-0.170645 -0.048604 -0.058280 -0.013261 -0.155117 -0.071603 -0.267392 0.103927 0.268416 0.202722 0.162896 -0.137981 0.191236 -0.156748 -0.066667 -0.272004
-0.207048 -0.028601 0.333168 0.197832 0.150028 -0.235110 -0.081809 0.184433 0.042927 0.027587 -0.227225 -0.027536 0.050801 0.023688 -0.011411 0.185653
-0.188401 0.258159 0.259307 -0.219575 0.033541 -0.302113 -0.132015 0.018581 -0.053424 -0.104453 -0.268386 -0.017902 -0.144586 0.162462 0.017457 0.156855
0.128007 0.199773 -0.001402 0.227970 -0.228943 -0.093558 0.189316 0.215834 -0.219455 -0.264181 -0.250901 -0.106920 0.077041 -0.133129 -0.331863 -0.255001
0.022524 -0.214956 -0.099378 0.160140 -0.245112 -0.010247 0.074885 -0.039256 -0.075550 0.225555 -0.203891 -0.077528 -0.038361 -0.121227 -0.148673 0.098704
-0.294093 0.291481 0.356631 -0.040914 0.219918 -0.166830 0.137584 0.218602 -0.284587 0.190342 0.123854 0.281406 -0.329226 0.252776 0.397776 0.084678
-0.236024 0.390431 0.316329 -0.181044 -0.030508 -0.265482 -0.098433 0.075640 0.068595 -0.021252 0.144925 0.140247 -0.333370 0.143762 0.247224 0.095023
0.073081 0.304640 0.157102 -0.069282 0.054452 -0.064291 -0.164644 0.012058 0.115725 -0.148775 0.063284 0.115008 -0.080751 0.261261 -0.024053 0.071693
-0.282823 0.143987 0.033931 -0.060270 0.052369 0.027108 0.150343 0.091921 -0.022628 -0.028428 0.109424 0.212911 -0.056214 0.050505 0.393452 0.095369
0.150810 0.112684 0.365764 0.109848 0.100768 -0.177081 -0.104841 0.100988 0.192878 0.057012 0.140387 0.258446 0.069075 0.136856 0.296312 0.276135
0.219718 -0.262117 -0.107260 0.067931 -0.076727 0.274784 -0.071491 -0.200722 0.266268 -0.012674 0.027295 0.187641 0.273828 -0.306223 0.017607 -0.198342
-0.136282 -0.067333 0.000894 0.164937 -0.075892 -0.057041 -0.094696 -0.109060 0.049009 0.278417 -0.137614 -0.250052 -0.042284 -0.267061 -0.257535 -0.091501
