0.328938 -0.032422 0.374246 0.285108 -0.004176 -0.135777 -0.274819 0.084352 -0.319475 -0.248668 0.086306 0.007293 -0.108189 0.169796 0.290936 0.000824
0.160457 -0.009994 0.132060 0.232610 0.125400 -0.188297 0.200842 0.118631 -0.041445 -0.112458 0.070009 0.088955 0.206043 -0.074208 -0.238101 -0.186098
0.290753 -0.065736 0.094282 0.141213 -0.094580 0.061077 0.074986 0.130363 -0.056287 0.103222 0.071127 0.000769 -0.040142 0.327870 0.120941 -0.054996
-0.222394 -0.122666 0.186413 -0.157102 0.091361 0.082569 -0.123037 -0.051340 -0.035918 0.082036 -0.146720 -0.048465 0.027442 -0.459278 0.325728 -0.293980
0.076664 -0.160013 -0.137145 -0.158736 -0.186489 0.018300 0.212425 -0.123761 0.245562 -0.041411 -0.119977 -0.096811 -0.214789 0.042948 -0.222316 -0.054843
-0.129283 -0.239097 0.255329 -0.055352 0.045684 0.149765 0.115665 0.234329 -0.246868 0.134120 -0.125490 0.115710 0.202644 -0.166251 0.131958 0.004133
0.187545 0.146249 -0.168953 -0.084642 0.157810 -0.158466 -0.215204 -0.060240 -0.204255 0.247234 0.131185 0.131947 -0.101858 0.217480 -0.148366 -0.063415
-0.266726 0.129962 0.080463 -0.234936 0.124702 -0.159950 0.197256 0.198617 -0.169667 0.099986 0.097727 0.116159 0.284289 -0.007311 -0.091659 0.009554
-0.153842 0.034550 0.216811 -0.329200 0.101857 0.138782 -0.016751 -0.035341 0.227405 -0.105048 0.292376 0.332862 -0.144075 0.060815 0.194372 -0.068626
0.171054 0.121951 -0.096468 0.201165 -0.085229 0.018285 -0.078845 0.184184 0.030792 0.073917 -0.004775 0.000789 0.135226 -0.056742 -0.261327 0.067579
0.060550 0.064793 0.231506 -0.140247 0.125426 -0.019657 -0.258244 -0.198927 -0.186758 -0.254229 0.105175 0.106292 -0.266303 -0.041866 -0.093901 -0.134859
-0.100516 -0.031891 0.006871 0.171526 0.032887 -0.036551 0.092151 -0.262713 -0.169300 -0.186514 0.069971 0.163379 -0.091283 0.230616 -0.015512 0.103038
0.114217 0.058134 0.093321 -0.035519 -0.217797 0.069642 0.043269 0.107001 0.296696 -0.176067 0.110114 -0.092139 0.101638 -0.303377 -0.063979 0.145606
-0.084686 0.195463 -0.030849 -0.157587 0.209740 -0.092985 -0.106457 0.220555 0.186657 0.229124 0.116716 0.027392 0.127024 0.276785 -0.159282 0.266702
0.189284 -0.024037 -0.147629 -0.027091 -0.175142 0.253999 -0.124512 -0.148239 0.146897 0.023436 -0.353133 0.109707 0.112961 0.116355 0.168370 0.194478
-0.175471 -0.120284 -0.094360 -0.161773 0.123093 -0.000419 0.252387 -0.052048 -0.097918 0.226248 0.116774 0.130026 0.208691 0.099672 -0.266196 -0.273228
