0.042582 -0.087734 0.357941 0.163917 0.173303 0.015402 -0.020720 -0.060221 -0.074311 -0.283730 0.048189 0.194852 -0.020353 0.183744 -0.100941 -0.128162
-0.100052 0.360515 -0.411607 -0.329383 0.146208 0.110431 0.085227 0.193433 -0.238178 0.338803 -0.035959 -0.156044 0.218898 -0.068015 0.236415 0.037707
-0.214069 0.169807 -0.029386 0.153527 -0.028825 0.038056 0.215924 0.157494 0.086299 -0.074843 0.266584 0.027960 0.017189 -0.282398 0.208235 0.229255
-0.298551 -0.081025 -0.070000 0.264069 -0.292647 -0.151426 0.173548 0.052968 -0.213628 -0.214565 -0.118757 0.139548 0.058304 0.293302 0.069842 -0.163693
0.065919 -0.032048 -0.001981 0.170863 0.302187 0.143405 -0.072468 0.154947 0.260717 0.043683 0.166296 -0.109289 0.139136 -0.062694 0.120596 0.374797
0.114452 -0.353240 -0.090846 0.063590 -0.157671 -0.168575 -0.203998 0.067798 0.200235 0.192999 -0.222640 -0.029925 -0.097722 0.369529 -0.208883 -0.019848
0.143595 -0.285509 -0.101410 0.245074 -0.191279 -0.090574 0.220141 0.097724 -0.098100 0.245101 -0.123238 0.077670 -0.108661 0.297955 0.089501 -0.134646
-0.045864 0.149775 -0.322772 -0.214939 0.073540 0.380898 -0.079117 -0.184761 -0.034748 0.000015 0.178722 -0.266762 0.013797 -0.334504 0.297847 0.263120
0.090721 0.055749 -0.150603 -0.270732 0.235638 0.105351 0.128961 -0.172691 -0.136875 -0.047301 0.295988 0.111590 0.298045 -0.376300 -0.095896 -0.068181
0.064871 -0.142269 0.179171 0.023494 -0.206925 0.166036 0.272460 0.173075 0.249426 0.066393 -0.004908 -0.178292 -0.311286 0.178662 -0.013437 0.243089
0.165426 -0.185362 -0.066433 0.090588 0.066177 -0.437513 0.232001 -0.229967 0.144751 -0.063776 -0.267034 -0.052639 0.065293 -0.080956 -0.104485 -0.096875
-0.001189 0.167287 0.289811 0.076514 0.152224 0.004344 0.020205 0.029218 0.023900 0.058579 0.082009 -0.118535 -0.302389 0.385508 -0.405950 -0.203060
0.306859 0.184812 -0.191599 -0.038745 0.189996 -0.199195 0.085981 -0.043753 -0.048483 -0.210708 0.322910 -0.111426 0.225208 -0.098035 -0.022174 0.186012
-0.141841 -0.194622 -0.149193 -0.032608 -0.173227 -0.102846 -0.087031 0.067600 0.004859 -0.140220 0.183783 -0.212210 -0.124158 -0.016734 0.085387 0.086024
0.181003 -0.180728 -0.020982 -0.003320 -0.030611 -0.022910 -0.187727 -0.276065 0.081496 -0.136082 0.247907 0.295557 -0.085916 -0.108373 0.313013 0.064434
-0.077132 0.054902 -0.185204 -0.016509 0.198860 0.141609 -0.260433 0.200242 0.154278 0.148105 0.124242 -0.123319 0.272515 0.157057 0.260536 0.205594
