-0.021983 0.027849 0.279151 0.052948 0.092864 0.293371 -0.345056 -0.137862 0.226860 0.188344 0.226901 -0.267716 0.045613 0.398978 -0.183254 0.147635
-0.294637 0.268892 -0.356008 -0.295992 0.049587 0.153602 -0.040698 0.033471 0.207297 0.087927 -0.038616 -0.014717 -0.140273 0.167630 -0.127887 -0.207604
0.305102 0.252919 0.175256 -0.145277 0.187144 0.140959 -0.017618 0.139020 0.175875 0.128044 0.305080 -0.113911 -0.154741 0.144237 -0.400684 -0.273892
0.116009 0.222457 -0.037246 -0.072121 -0.259272 -0.591466 0.003238 0.168844 0.102510 0.041339 0.048325 -0.240832 -0.114347 0.203646 -0.120202 -0.073349
-0.137083 -0.045060 0.237771 -0.032633 0.254001 0.023245 -0.045583 -0.071393 0.164184 -0.029517 -0.250458 0.206911 0.233630 -0.255785 0.125873 0.017349
-0.154009 -0.087604 0.139523 0.110718 -0.057328 -0.135833 0.111528 0.143523 -0.401583 0.395461 -0.432404 0.002060 0.226523 -0.088350 0.076445 0.083596
0.118207 -0.120304 -0.293491 -0.117371 -0.239177 -0.267909 -0.117857 -0.190412 -0.151328 0.020448 0.238375 0.123577 -0.247527 0.270906 -0.274895 -0.219794
-0.083312 0.320005 -0.119114 0.142175 -0.232068 -0.208541 0.156718 -0.194214 0.233104 0.066009 0.247549 -0.000766 -0.063399 0.076766 -0.154984 -0.072539
0.064044 0.131833 0.210980 -0.036193 0.187382 0.291542 -0.096365 0.128568 0.147754 -0.069926 0.225302 0.135248 -0.302626 0.084098 -0.082531 -0.082596
-0.127410 0.163798 -0.209528 -0.029190 -0.169882 -0.023153 0.128790 0.087651 -0.105287 -0.074251 0.080936 -0.014489 0.236432 0.097475 -0.026624 -0.213026
0.311618 -0.087172 0.171911 0.160703 0.010479 -0.178575 -0.278682 -0.189547 0.009905 0.122139 -0.253423 -0.264223 -0.016443 -0.345812 0.225787 0.427029
0.004334 0.108195 -0.078177 0.108106 0.004596 -0.156535 0.057213 0.083443 0.265935 -0.023778 0.251782 0.168125 -0.008176 -0.309186 0.363174 -0.100993
0.054691 -0.253985 0.061009 0.054275 0.023694 0.080047 0.045173 -0.027219 -0.200660 -0.193971 0.202654 0.217348 -0.015161 -0.205199 0.293627 0.477730
-0.254281 0.172980 -0.173008 -0.008395 -0.179772 0.127557 0.235146 -0.101946 -0.256195 0.093425 -0.031337 0.138532 0.096771 0.157336 0.256056 -0.090410
-0.175254 -0.316668 0.169549 0.146090 -0.033844 -0.206857 0.144924 0.234533 0.083605 -0.176781 0.158447 0.263151 0.012306 -0.260486 -0.162092 -0.057229
-0.118336 -0.295467 -0.040931 0.102188 -0.071077 -0.084006 0.121044 0.032532 -0.082372 -0.212721 -0.111623 -0.102449 -0.042532 0.034295 0.000078 -0.041734
