-0.128296 0.132986 -0.227674 -0.100352 0.168038 0.094054 0.032805 0.136265 0.166246 0.144476 -0.010886 -0.174732 -0.165373 -0.065812 -0.187652 0.127708
-0.169738 -0.283577 0.052159 -0.093256 0.050489 -0.099326 0.122650 -0.018225 0.187027 -0.039969 0.018250 -0.124679 0.133128 -0.007313 -0.331024 -0.197196
0.262090 -0.078129 -0.211804 -0.148039 0.246225 -0.219186 0.068341 -0.108246 0.100066 0.144585 -0.139775 -0.233873 0.016860 -0.035767 0.064111 -0.063315
-0.412603 0.063552 0.317115 -0.272921 0.022575 -0.012758 -0.121055 -0.370282 0.007036 0.064385 0.129050 -0.099118 0.008771 -0.248753 -0.383803 -0.124873
0.075779 0.034652 0.167149 0.071196 0.231644 -0.025054 -0.198609 0.050270 -0.144197 -0.256575 -0.134660 0.036794 -0.076671 0.181332 0.144153 0.007976
0.057760 0.198234 0.166992 -0.221213 -0.019930 0.107741 -0.127143 -0.157676 -0.159040 0.113329 -0.134038 0.293953 0.056572 -0.056186 0.059162 0.132206
0.048854 0.163229 0.062401 0.078852 -0.034538 -0.000245 0.010135 0.035521 0.043551 0.031194 0.208335 -0.058303 0.266234 -0.075631 0.002019 0.025794
0.134466 -0.042102 -0.081795 0.080383 -0.142942 -0.083175 0.232269 0.107521 0.206014 -0.128017 0.110094 -0.100265 0.050834 -0.241853 0.049363 -0.306003
0.234848 -0.334195 -0.393152 0.123095 0.316878 -0.276052 0.109420 0.294615 -0.120258 -0.047044 -0.248627 -0.207863 -0.408730 0.256735 0.366139 0.240503
-0.411015 0.108504 0.336702 -0.275408 -0.277937 0.234001 0.025581 -0.432810 0.218276 0.052971 -0.156770 0.137660 0.381598 -0.302918 -0.424380 -0.269455
-0.246752 0.338123 0.462015 -0.282034 -0.007772 -0.126466 -0.150231 -0.269250 0.279218 -0.115484 -0.021524 0.004892 0.209739 -0.205193 -0.109424 -0.068417
-0.266232 0.359774 0.285645 -0.081976 -0.025190 0.245427 -0.145263 -0.382289 0.183984 0.077414 0.158855 -0.185261 0.260590 -0.018872 -0.060983 -0.045937
-0.254397 0.133986 -0.043330 -0.188021 -0.207505 0.214440 0.030537 0.055556 0.175486 -0.201948 -0.067305 0.264209 0.212614 -0.047061 -0.454625 0.042602
-0.276000 0.436210 0.097684 -0.048056 -0.173967 0.062252 -0.394481 -0.279775 0.260251 -0.213645 -0.107141 -0.043434 0.155372 -0.217914 -0.433485 -0.240461
0.219731 0.023075 -0.112689 -0.208895 -0.020312 0.274111 0.103920 -0.259680 0.003404 -0.232013 -0.010254 0.113483 -0.176082 0.085162 -0.028395 0.002964
0.128698 -0.032165 -0.087269 -0.040319 0.111020 0.018978 -0.199622 0.001603 -0.090505 0.016408 -0.141276 0.161785 -0.160515 -0.038923 0.199127 0.068812
