-0.029197 0.059446 0.094498 -0.029743 0.044628 0.046160 0.007479 0.223782 0.026223 0.246285 0.029014 -0.033385 0.109760 -0.285950 -0.075215 -0.020010
0.108876 0.310276 -0.222210 0.028489 0.310167 -0.183584 0.078666 0.184500 -0.011418 -0.073174 -0.112512 0.150586 0.101245 0.063545 -0.059329 0.275001
0.163959 0.027187 0.149517 0.067904 -0.155377 0.110250 0.202340 0.017031 -0.223888 -0.285685 0.209261 0.091913 0.233033 -0.301487 -0.063911 0.086883
0.118552 -0.021269 0.252821 -0.265127 0.053349 0.198689 0.124827 -0.013593 0.217942 -0.258638 0.054018 -0.194700 0.049603 -0.156877 -0.134619 0.114058
-0.095093 -0.079174 0.267976 -0.184419 -0.007286 -0.074526 -0.015083 -0.185996 -0.266943 0.214377 0.136899 0.177873 0.135937 -0.052105 -0.012965 -0.186073
0.057682 -0.185253 -0.214319 0.033313 -0.214045 -0.025386 0.029700 0.131669 -0.031784 -0.117414 -0.232893 -0.131080 -0.290604 0.211359 0.175084 -0.146769
-0.117044 -0.104485 0.024671 -0.108041 -0.046366 -0.037827 -0.118960 -0.007535 -0.005019 0.182072 0.209006 -0.072114 -0.222142 -0.110362 -0.093905 -0.033839
0.192391 0.070106 -0.225784 -0.098700 0.210270 -0.164386 -0.186550 0.282556 0.091778 -0.080296 0.078557 0.125307 0.032104 -0.197795 0.150971 0.221707
-0.035586 0.161443 0.115982 0.256420 -0.226815 -0.201338 -0.042950 -0.116963 0.174055 -0.045050 0.118528 0.037338 -0.168489 -0.073411 -0.122778 -0.262701
0.171511 0.174051 -0.140965 0.125032 0.084575 -0.116079 0.041466 -0.191479 0.032419 -0.216939 0.011346 0.161791 0.063159 -0.068447 -0.123129 0.162370
-0.116849 0.194680 -0.036349 -0.250866 0.032281 -0.221121 0.222950 -0.207236 0.082646 -0.243265 -0.075105 0.045971 -0.235039 -0.014894 0.064357 -0.046098
0.042312 -0.282680 -0.017839 0.293483 0.041902 -0.042218 -0.136429 0.114246 0.176916 -0.196316 0.088626 -0.191376 -0.082483 -0.155033 0.197701 -0.089895
-0.069861 -0.250786 -0.128028 0.255483 -0.064212 0.172066 0.009874 0.168958 -0.060705 -0.031440 0.033775 0.151613 -0.042833 0.183902 0.086408 -0.188661
-0.068535 -0.023336 0.249400 -0.001578 -0.161361 0.133036 -0.221494 -0.107053 -0.182820 -0.075030 0.111930 -0.186431 -0.051485 0.287472 0.196867 -0.219092
0.109784 -0.353369 0.013674 0.102147 0.040665 0.062947 0.164507 0.038664 -0.265932 0.180835 0.000054 -0.100373 0.286954 0.252932 -0.194454 -0.269086
-0.117594 -0.013256 0.121538 0.131726 0.152475 0.217703 -0.064351 -0.271050 0.109161 0.045258 0.218953 -0.110756 -0.185023 -0.001662 -0.058443 0.169639
