0.464037 -0.167500 -0.219711 0.172347 -0.153545 0.047673 0.167219 0.145000 -0.192928 -0.025574 0.066036 0.042047 -0.124582 -0.066112 0.135585 -0.092874
0.295921 0.077890 -0.369854 -0.099446 0.002759 0.113573 0.138001 0.216448 0.283321 -0.081527 -0.051368 0.118707 -0.046769 0.136276 -0.112592 0.191151
0.068931 -0.206750 -0.150170 -0.137341 -0.113828 0.059419 0.268871 -0.386433 -0.118966 -0.125395 0.275074 0.132896 -0.081892 -0.025409 0.329651 0.153671
-0.089721 0.013364 0.255052 -0.041653 0.191939 -0.050731 0.035150 0.259974 -0.230309 0.093437 -0.185576 0.197941 -0.034143 0.211830 -0.027094 -0.111776
-0.244759 -0.091989 0.203645 -0.331790 0.139970 -0.195891 -0.004830 0.041073 0.288029 0.194001 0.222057 -0.066544 0.100539 0.143321 -0.145336 -0.117666
0.270656 -0.067094 -0.224270 0.031451 0.222479 -0.177837 -0.185644 -0.165460 0.088503 -0.273438 -0.326426 0.271959 0.089752 0.096182 -0.260490 0.003984
0.047128 -0.198310 0.068399 0.094316 -0.159921 -0.105041 -0.166179 -0.074094 -0.003613 -0.175604 -0.227624 0.085793 -0.168928 0.206901 0.198896 -0.113937
-0.056490 -0.104033 0.077178 -0.256221 -0.280155 0.042411 -0.129027 0.061569 -0.001133 -0.259855 0.001220 0.158533 0.336895 0.235477 0.271205 -0.094127
-0.100514 -0.055914 -0.081480 0.085057 -0.124104 0.057175 0.241845 -0.043384 -0.322110 0.148907 -0.261610 -0.083715 -0.102535 0.091523 0.144749 -0.171497
-0.037409 -0.077092 -0.133361 0.057673 0.298339 0.194010 -0.255281 -0.011107 -0.067987 -0.258592 -0.108205 0.079779 0.390381 -0.221300 0.208879 0.174120
0.218474 -0.174826 -0.032552 -0.281217 -0.158392 -0.209839 0.126043 -0.251262 0.071389 0.111733 -0.154239 0.045802 -0.008161 -0.039572 -0.150355 -0.223432
0.186255 -0.068421 0.002244 -0.077994 -0.247322 -0.094486 0.140263 -0.073209 0.056443 -0.198563 0.010452 -0.147645 0.009050 0.316685 -0.103816 -0.054556
0.046275 0.078332 0.072223 -0.378356 0.022284 0.309313 -0.142642 -0.252817 0.111097 0.174759 0.145766 0.059400 -0.150202 0.019427 0.291314 -0.080583
0.176151 -0.103631 -0.053950 0.077066 0.318065 -0.302914 -0.080358 0.371227 -0.237976 -0.073444 0.018941 -0.006330 0.094533 0.190603 -0.113205 -0.100511
-0.160480 -0.076648 0.200508 0.106005 -0.146201 0.084697 -0.132774 -0.034124 -0.159088 -0.117209 0.148599 -0.247622 0.019000 -0.183149 0.207818 0.148536
0.263611 0.175937 0.088263 0.100811 0.225678 0.220228 -0.173584 0.080205 -0.150531 0.105462 0.004049 -0.031784 -0.284922 -0.223208 -0.309535 0.194323
