0.054100 0.173758 -0.154075 0.104914 -0.228861 0.190059 -0.176357 0.175706 0.028427 -0.182863 -0.006745 0.231123 0.108163 0.145744 -0.259424 -0.183124
0.238697 0.285817 -0.040543 -0.160274 0.069300 0.055823 0.128780 0.282737 0.210290 0.182340 -0.096295 -0.099006 -0.063621 -0.115346 0.157541 -0.063958
-0.111568 0.112568 0.187659 -0.178171 -0.178926 -0.145611 0.105634 0.000605 -0.000412 0.110233 -0.225471 -0.197902 0.175240 -0.174430 -0.225636 0.133121
-0.174823 -0.156989 0.106205 0.186635 0.086462 0.037855 0.181756 0.178056 -0.108822 0.203955 -0.173988 0.016933 0.043693 0.017908 -0.281860 0.241318
-0.071445 -0.206479 0.183804 0.081230 0.076393 0.017094 0.144774 0.001699 0.162435 0.182100 -0.139382 0.160912 -0.169576 0.113208 0.059610 -0.222916
-0.032780 0.085529 -0.169913 -0.020110 0.028446 -0.038324 0.111883 0.062383 -0.200486 0.216474 -0.161412 0.194116 -0.098200 0.160362 0.110165 -0.042752
-0.185981 0.087964 -0.120958 -0.076199 0.218252 -0.110074 -0.124744 -0.198635 -0.230212 0.278547 -0.149838 -0.083729 0.110705 0.068511 0.100876 0.173459
0.228005 0.273824 0.129659 -0.065795 -0.140192 0.048297 -0.124512 0.209896 0.004629 -0.006037 -0.159711 0.263389 0.111867 -0.123276 0.180606 0.249691
0.008777 0.088453 0.141094 0.197578 -0.058717 0.122125 -0.203582 -0.108621 -0.031019 0.075750 0.072970 0.165725 -0.244021 -0.180072 0.076465 0.163706
-0.141857 0.073895 0.024567 0.095908 -0.008621 -0.182817 0.148603 -0.108522 -0.089006 0.253245 -0.031814 0.003549 0.250754 -0.270802 0.017088 -0.138044
0.254549 0.118444 0.215112 -0.111022 0.082202 -0.106359 -0.077472 -0.164759 0.058429 0.184374 0.091747 0.027333 -0.113847 -0.179556 -0.039757 -0.187173
0.164199 0.077662 -0.072353 0.104663 -0.107250 -0.227682 0.155224 0.096815 -0.014774 0.223546 0.098955 0.073810 0.072204 -0.220764 -0.031039 0.046371
-0.237783 0.067151 -0.091937 -0.017091 0.141555 0.103851 -0.070981 0.076081 0.131267 -0.144768 -0.081087 0.012646 0.005212 -0.113784 -0.017002 0.174239
-0.127202 0.041456 -0.205338 0.083931 -0.123188 0.093198 -0.067776 -0.165967 0.005990 0.019024 0.174712 -0.183718 0.140099 0.157463 -0.062646 -0.254263
-0.142837 0.099359 0.077252 0.221065 0.029822 -0.084840 0.165894 0.133412 0.051897 -0.138804 0.244709 -0.018783 0.001088 0.160655 0.254468 -0.165187
0.204173 -0.108511 -0.033331 -0.219114 -0.017136 -0.259947 0.038264 0.172520 -0.228615 -0.199566 -0.206857 0.009320 0.142468 -0.171740 0.026339 0.069754
