0.203328 -0.019616 0.169073 0.426484 0.027859 -0.263083 -0.076586 -0.056333 0.221012 0.477673 0.040779 0.145821 -0.043701 0.316188 0.105514 0.020682
0.132580 -0.011867 0.055637 0.160117 0.194611 -0.017152 0.101331 -0.066855 0.111872 -0.079414 0.129364 0.102394 -0.218686 0.173730 -0.301916 -0.044179
-0.071411 -0.000125 0.067371 0.071550 -0.032353 -0.099022 -0.000491 -0.259502 0.067510 0.267869 0.098753 0.044651 0.108074 0.027506 -0.239734 0.143390
-0.184786 -0.044965 -0.179075 -0.091860 -0.096500 0.173042 -0.183195 0.027013 -0.146727 0.127231 -0.126842 -0.344237 -0.048538 -0.201782 0.207323 -0.179368
0.170281 0.011097 0.133893 -0.246813 0.017584 0.132736 -0.251660 0.142930 0.138850 -0.234554 0.225397 -0.009650 0.037233 -0.252249 -0.063991 -0.122603
0.029167 0.278414 -0.288645 -0.112140 -0.118059 -0.188141 0.255165 -0.239590 -0.216267 0.011426 0.218781 0.216247 -0.077121 -0.134780 -0.013263 -0.131941
0.200435 0.037666 0.139959 0.134744 -0.105784 0.181249 -0.013168 -0.169767 0.076228 0.228900 -0.241445 -0.040297 -0.067075 0.071611 0.040087 -0.085491
-0.101199 -0.186041 0.001173 0.100900 -0.136580 0.102826 -0.011710 0.140531 0.065085 0.244122 0.192592 0.129629 0.152734 0.039271 -0.001645 0.129812
0.213170 -0.044769 0.264473 -0.038888 -0.162022 0.037486 -0.150291 0.004576 0.175371 0.186965 0.099873 -0.045898 0.257320 -0.002581 -0.022482 0.140212
0.002410 -0.119848 -0.322064 0.007275 -0.190798 0.233764 -0.153966 -0.027794 -0.132522 0.052754 -0.322966 -0.048712 0.035779 0.210846 0.299795 -0.207538
0.179370 0.065824 -0.052264 0.089875 -0.142406 0.054565 -0.202546 -0.032196 -0.022456 0.239736 0.144950 -0.027986 0.095715 0.011331 -0.156971 0.027421
0.122951 0.133046 0.039054 0.038743 0.212902 0.028384 0.057117 0.129859 0.067703 0.080626 -0.196284 -0.008208 0.118728 -0.060965 0.048884 -0.078776
-0.042511 -0.050909 -0.137739 0.152857 -0.149975 0.209872 -0.002369 -0.029155 -0.162405 0.128547 -0.268407 -0.060682 -0.047339 -0.204251 0.181560 -0.225528
0.055010 0.086560 -0.002278 -0.083655 0.024538 -0.213521 0.170447 0.197924 -0.111091 -0.084650 0.117185 -0.152355 -0.000715 -0.132528 0.160453 -0.082080
0.228372 0.182697 -0.219405 -0.419484 -0.068087 -0.193654 0.114153 -0.147125 -0.083485 -0.198029 -0.138259 -0.130658 -0.004473 0.180258 0.097554 -0.225755
-0.105019 0.143458 -0.106173 -0.130282 0.002866 0.038528 0.059185 0.068986 -0.022253 -0.057810 -0.071579 -0.239695 0.212726 -0.202647 0.085999 -0.088847
