0.249756 -0.158567 0.011289 -0.101692 -0.016140 -0.107524 -0.031864 -0.108929 0.061515 0.135914 -0.095667 0.156305 -0.219563 0.234519 0.151124 0.047231
0.261829 -0.007760 -0.006011 -0.179789 -0.026409 0.054875 0.133803 -0.227464 0.034000 -0.247921 0.070040 0.275805 0.160078 0.198989 -0.055896 0.008614
-0.176502 0.079904 0.296769 -0.276122 0.042102 -0.243181 -0.054421 -0.002891 0.054039 0.143968 -0.097196 0.167779 0.127020 0.034551 0.119283 0.060185
-0.203500 0.169361 -0.085065 0.139071 -0.017431 0.168574 0.174749 -0.130916 0.072498 0.173910 0.038987 -0.067315 -0.004335 -0.147329 -0.020727 0.101776
-0.045729 0.208580 0.101565 0.170706 -0.214319 0.147991 0.111146 -0.309962 -0.206131 -0.065557 0.170934 -0.024071 0.120709 0.217231 0.155421 0.107104
0.118299 -0.139147 -0.067287 -0.164827 -0.137038 -0.168570 -0.160166 0.063773 0.087198 0.099303 -0.251548 0.141156 -0.248056 0.226278 0.112027 0.188429
-0.184470 0.090560 -0.142894 -0.259916 0.029026 0.045228 -0.049741 0.218777 -0.093616 0.050101 -0.063198 0.185989 0.138288 -0.042419 0.170605 0.245501
0.039046 0.183530 -0.139116 0.145870 0.198154 0.039045 -0.032145 -0.079743 -0.067743 0.011772 0.211739 0.187334 -0.153897 -0.218182 -0.019398 0.062299
-0.129354 -0.240369 0.106026 -0.076678 -0.039318 0.023798 -0.109827 -0.037869 0.024140 0.291650 -0.151164 0.049927 -0.024179 0.088226 0.244161 0.152216
-0.073786 0.189769 0.241657 0.061055 -0.104317 -0.034537 -0.211244 0.141781 -0.020716 0.113321 0.162965 0.219922 0.254686 0.018827 0.170198 0.143517
0.128017 0.179883 -0.172437 0.086990 0.133295 -0.013413 0.069049 0.194938 0.146336 -0.186579 0.129985 0.177306 -0.185250 0.065947 0.213978 -0.286236
0.136465 -0.006342 0.109040 -0.077147 0.228196 0.140591 0.243309 -0.106949 -0.205798 0.163199 -0.063253 -0.187524 -0.189898 0.056956 -0.175716 0.109520
-0.214071 -0.140013 -0.186666 0.187012 -0.048955 0.178167 -0.089937 -0.141012 -0.188734 0.145788 0.180073 -0.049215 0.192437 -0.077904 0.228560 0.029424
0.361897 -0.019132 -0.157733 -0.096492 -0.249244 0.270846 0.115628 -0.221089 0.046544 -0.149218 0.145220 0.110821 -0.310465 0.075280 -0.177972 0.072892
-0.143319 0.229380 -0.212178 -0.342735 0.161961 0.035676 0.230117 0.067605 -0.049505 -0.087902 0.106320 0.268108 -0.182923 0.019121 -0.030865 -0.103121
0.142922 0.159313 0.070898 -0.312743 0.153429 0.231017 -0.221895 0.134190 -0.211741 0.059925 0.216877 -0.001369 -0.007003 -0.142259 0.227498 0.073012
